digraph Tree {
node [shape=box, style="filled, rounded", color="black", fontname=helvetica] ;
edge [fontname=helvetica] ;
0 [label="Sex_1 <= 0.5\ngini = 0.479\nsamples = 1043\nvalue = [628, 415]\nclass = Survived 0", fillcolor="#f6d4bc"] ;
1 [label="Pclass_3 <= 0.5\ngini = 0.277\nsamples = 386\nvalue = [64, 322]\nclass = Survived 1", fillcolor="#60b0ea"] ;
0 -> 1 [labeldistance=2.5, labelangle=45, headlabel="True"] ;
2 [label="Fare <= 3.362\ngini = 0.074\nsamples = 234\nvalue = [9, 225]\nclass = Survived 1", fillcolor="#41a1e6"] ;
1 -> 2 ;
3 [label="Fare <= 3.34\ngini = 0.137\nsamples = 95\nvalue = [7, 88]\nclass = Survived 1", fillcolor="#49a5e7"] ;
2 -> 3 ;
4 [label="Age <= 23.5\ngini = 0.12\nsamples = 94\nvalue = [6, 88]\nclass = Survived 1", fillcolor="#46a4e7"] ;
3 -> 4 ;
5 [label="gini = 0.0\nsamples = 26\nvalue = [0, 26]\nclass = Survived 1", fillcolor="#399de5"] ;
4 -> 5 ;
6 [label="Age <= 27.5\ngini = 0.161\nsamples = 68\nvalue = [6, 62]\nclass = Survived 1", fillcolor="#4ca6e8"] ;
4 -> 6 ;
7 [label="Age <= 25.5\ngini = 0.355\nsamples = 13\nvalue = [3, 10]\nclass = Survived 1", fillcolor="#74baed"] ;
6 -> 7 ;
8 [label="Fare <= 2.62\ngini = 0.219\nsamples = 8\nvalue = [1, 7]\nclass = Survived 1", fillcolor="#55abe9"] ;
7 -> 8 ;
9 [label="gini = 0.5\nsamples = 2\nvalue = [1, 1]\nclass = Survived 0", fillcolor="#ffffff"] ;
8 -> 9 ;
10 [label="gini = 0.0\nsamples = 6\nvalue = [0, 6]\nclass = Survived 1", fillcolor="#399de5"] ;
8 -> 10 ;
11 [label="Fare <= 2.837\ngini = 0.48\nsamples = 5\nvalue = [2, 3]\nclass = Survived 1", fillcolor="#bddef6"] ;
7 -> 11 ;
12 [label="gini = 0.0\nsamples = 3\nvalue = [0, 3]\nclass = Survived 1", fillcolor="#399de5"] ;
11 -> 12 ;
13 [label="gini = 0.0\nsamples = 2\nvalue = [2, 0]\nclass = Survived 0", fillcolor="#e58139"] ;
11 -> 13 ;
14 [label="Age <= 37.0\ngini = 0.103\nsamples = 55\nvalue = [3, 52]\nclass = Survived 1", fillcolor="#44a3e6"] ;
6 -> 14 ;
15 [label="gini = 0.0\nsamples = 31\nvalue = [0, 31]\nclass = Survived 1", fillcolor="#399de5"] ;
14 -> 15 ;
16 [label="Age <= 39.0\ngini = 0.219\nsamples = 24\nvalue = [3, 21]\nclass = Survived 1", fillcolor="#55abe9"] ;
14 -> 16 ;
17 [label="gini = 0.0\nsamples = 1\nvalue = [1, 0]\nclass = Survived 0", fillcolor="#e58139"] ;
16 -> 17 ;
18 [label="Fare <= 2.458\ngini = 0.159\nsamples = 23\nvalue = [2, 21]\nclass = Survived 1", fillcolor="#4ca6e7"] ;
16 -> 18 ;
19 [label="Age <= 53.5\ngini = 0.444\nsamples = 3\nvalue = [1, 2]\nclass = Survived 1", fillcolor="#9ccef2"] ;
18 -> 19 ;
20 [label="gini = 0.0\nsamples = 2\nvalue = [0, 2]\nclass = Survived 1", fillcolor="#399de5"] ;
19 -> 20 ;
21 [label="gini = 0.0\nsamples = 1\nvalue = [1, 0]\nclass = Survived 0", fillcolor="#e58139"] ;
19 -> 21 ;
22 [label="SibSp <= 0.5\ngini = 0.095\nsamples = 20\nvalue = [1, 19]\nclass = Survived 1", fillcolor="#43a2e6"] ;
18 -> 22 ;
23 [label="gini = 0.0\nsamples = 13\nvalue = [0, 13]\nclass = Survived 1", fillcolor="#399de5"] ;
22 -> 23 ;
24 [label="Age <= 44.5\ngini = 0.245\nsamples = 7\nvalue = [1, 6]\nclass = Survived 1", fillcolor="#5aade9"] ;
22 -> 24 ;
25 [label="Age <= 43.0\ngini = 0.5\nsamples = 2\nvalue = [1, 1]\nclass = Survived 0", fillcolor="#ffffff"] ;
24 -> 25 ;
26 [label="gini = 0.0\nsamples = 1\nvalue = [0, 1]\nclass = Survived 1", fillcolor="#399de5"] ;
25 -> 26 ;
27 [label="gini = 0.0\nsamples = 1\nvalue = [1, 0]\nclass = Survived 0", fillcolor="#e58139"] ;
25 -> 27 ;
28 [label="gini = 0.0\nsamples = 5\nvalue = [0, 5]\nclass = Survived 1", fillcolor="#399de5"] ;
24 -> 28 ;
29 [label="gini = 0.0\nsamples = 1\nvalue = [1, 0]\nclass = Survived 0", fillcolor="#e58139"] ;
3 -> 29 ;
30 [label="Age <= 2.5\ngini = 0.028\nsamples = 139\nvalue = [2, 137]\nclass = Survived 1", fillcolor="#3c9ee5"] ;
2 -> 30 ;
31 [label="Fare <= 4.374\ngini = 0.5\nsamples = 2\nvalue = [1, 1]\nclass = Survived 0", fillcolor="#ffffff"] ;
30 -> 31 ;
32 [label="gini = 0.0\nsamples = 1\nvalue = [0, 1]\nclass = Survived 1", fillcolor="#399de5"] ;
31 -> 32 ;
33 [label="gini = 0.0\nsamples = 1\nvalue = [1, 0]\nclass = Survived 0", fillcolor="#e58139"] ;
31 -> 33 ;
34 [label="Parch <= 1.5\ngini = 0.014\nsamples = 137\nvalue = [1, 136]\nclass = Survived 1", fillcolor="#3a9ee5"] ;
30 -> 34 ;
35 [label="gini = 0.0\nsamples = 112\nvalue = [0, 112]\nclass = Survived 1", fillcolor="#399de5"] ;
34 -> 35 ;
36 [label="Fare <= 4.904\ngini = 0.077\nsamples = 25\nvalue = [1, 24]\nclass = Survived 1", fillcolor="#41a1e6"] ;
34 -> 36 ;
37 [label="gini = 0.0\nsamples = 16\nvalue = [0, 16]\nclass = Survived 1", fillcolor="#399de5"] ;
36 -> 37 ;
38 [label="Fare <= 5.063\ngini = 0.198\nsamples = 9\nvalue = [1, 8]\nclass = Survived 1", fillcolor="#52a9e8"] ;
36 -> 38 ;
39 [label="gini = 0.0\nsamples = 1\nvalue = [1, 0]\nclass = Survived 0", fillcolor="#e58139"] ;
38 -> 39 ;
40 [label="gini = 0.0\nsamples = 8\nvalue = [0, 8]\nclass = Survived 1", fillcolor="#399de5"] ;
38 -> 40 ;
41 [label="Fare <= 3.036\ngini = 0.462\nsamples = 152\nvalue = [55, 97]\nclass = Survived 1", fillcolor="#a9d5f4"] ;
1 -> 41 ;
42 [label="Fare <= 2.047\ngini = 0.401\nsamples = 126\nvalue = [35, 91]\nclass = Survived 1", fillcolor="#85c3ef"] ;
41 -> 42 ;
43 [label="Fare <= 1.924\ngini = 0.105\nsamples = 18\nvalue = [1, 17]\nclass = Survived 1", fillcolor="#45a3e7"] ;
42 -> 43 ;
44 [label="gini = 0.0\nsamples = 1\nvalue = [1, 0]\nclass = Survived 0", fillcolor="#e58139"] ;
43 -> 44 ;
45 [label="gini = 0.0\nsamples = 17\nvalue = [0, 17]\nclass = Survived 1", fillcolor="#399de5"] ;
43 -> 45 ;
46 [label="Age <= 39.0\ngini = 0.431\nsamples = 108\nvalue = [34, 74]\nclass = Survived 1", fillcolor="#94caf1"] ;
42 -> 46 ;
47 [label="Parch <= 1.5\ngini = 0.409\nsamples = 101\nvalue = [29, 72]\nclass = Survived 1", fillcolor="#89c4ef"] ;
46 -> 47 ;
48 [label="Age <= 7.0\ngini = 0.439\nsamples = 89\nvalue = [29, 60]\nclass = Survived 1", fillcolor="#99ccf2"] ;
47 -> 48 ;
49 [label="Fare <= 2.379\ngini = 0.142\nsamples = 13\nvalue = [1, 12]\nclass = Survived 1", fillcolor="#49a5e7"] ;
48 -> 49 ;
50 [label="gini = 0.0\nsamples = 1\nvalue = [1, 0]\nclass = Survived 0", fillcolor="#e58139"] ;
49 -> 50 ;
51 [label="gini = 0.0\nsamples = 12\nvalue = [0, 12]\nclass = Survived 1", fillcolor="#399de5"] ;
49 -> 51 ;
52 [label="Fare <= 2.248\ngini = 0.465\nsamples = 76\nvalue = [28, 48]\nclass = Survived 1", fillcolor="#acd6f4"] ;
48 -> 52 ;
53 [label="Age <= 14.5\ngini = 0.402\nsamples = 43\nvalue = [12, 31]\nclass = Survived 1", fillcolor="#86c3ef"] ;
52 -> 53 ;
54 [label="gini = 0.0\nsamples = 1\nvalue = [1, 0]\nclass = Survived 0", fillcolor="#e58139"] ;
53 -> 54 ;
55 [label="Age <= 29.5\ngini = 0.387\nsamples = 42\nvalue = [11, 31]\nclass = Survived 1", fillcolor="#7fc0ee"] ;
53 -> 55 ;
56 [label="Age <= 19.5\ngini = 0.346\nsamples = 36\nvalue = [8, 28]\nclass = Survived 1", fillcolor="#72b9ec"] ;
55 -> 56 ;
57 [label="Fare <= 2.056\ngini = 0.18\nsamples = 10\nvalue = [1, 9]\nclass = Survived 1", fillcolor="#4fa8e8"] ;
56 -> 57 ;
58 [label="Fare <= 2.049\ngini = 0.444\nsamples = 3\nvalue = [1, 2]\nclass = Survived 1", fillcolor="#9ccef2"] ;
57 -> 58 ;
59 [label="gini = 0.0\nsamples = 1\nvalue = [0, 1]\nclass = Survived 1", fillcolor="#399de5"] ;
58 -> 59 ;
60 [label="gini = 0.5\nsamples = 2\nvalue = [1, 1]\nclass = Survived 0", fillcolor="#ffffff"] ;
58 -> 60 ;
61 [label="gini = 0.0\nsamples = 7\nvalue = [0, 7]\nclass = Survived 1", fillcolor="#399de5"] ;
57 -> 61 ;
62 [label="Age <= 21.5\ngini = 0.393\nsamples = 26\nvalue = [7, 19]\nclass = Survived 1", fillcolor="#82c1ef"] ;
56 -> 62 ;
63 [label="Fare <= 2.054\ngini = 0.5\nsamples = 4\nvalue = [2, 2]\nclass = Survived 0", fillcolor="#ffffff"] ;
62 -> 63 ;
64 [label="gini = 0.0\nsamples = 1\nvalue = [1, 0]\nclass = Survived 0", fillcolor="#e58139"] ;
63 -> 64 ;
65 [label="Fare <= 2.11\ngini = 0.444\nsamples = 3\nvalue = [1, 2]\nclass = Survived 1", fillcolor="#9ccef2"] ;
63 -> 65 ;
66 [label="gini = 0.0\nsamples = 1\nvalue = [0, 1]\nclass = Survived 1", fillcolor="#399de5"] ;
65 -> 66 ;
67 [label="Age <= 20.5\ngini = 0.5\nsamples = 2\nvalue = [1, 1]\nclass = Survived 0", fillcolor="#ffffff"] ;
65 -> 67 ;
68 [label="gini = 0.0\nsamples = 1\nvalue = [1, 0]\nclass = Survived 0", fillcolor="#e58139"] ;
67 -> 68 ;
69 [label="gini = 0.0\nsamples = 1\nvalue = [0, 1]\nclass = Survived 1", fillcolor="#399de5"] ;
67 -> 69 ;
70 [label="Age <= 22.5\ngini = 0.351\nsamples = 22\nvalue = [5, 17]\nclass = Survived 1", fillcolor="#73baed"] ;
62 -> 70 ;
71 [label="gini = 0.0\nsamples = 5\nvalue = [0, 5]\nclass = Survived 1", fillcolor="#399de5"] ;
70 -> 71 ;
72 [label="Fare <= 2.17\ngini = 0.415\nsamples = 17\nvalue = [5, 12]\nclass = Survived 1", fillcolor="#8bc6f0"] ;
70 -> 72 ;
73 [label="Age <= 25.5\ngini = 0.375\nsamples = 16\nvalue = [4, 12]\nclass = Survived 1", fillcolor="#7bbeee"] ;
72 -> 73 ;
74 [label="Age <= 24.5\ngini = 0.469\nsamples = 8\nvalue = [3, 5]\nclass = Survived 1", fillcolor="#b0d8f5"] ;
73 -> 74 ;
75 [label="Fare <= 2.066\ngini = 0.278\nsamples = 6\nvalue = [1, 5]\nclass = Survived 1", fillcolor="#61b1ea"] ;
74 -> 75 ;
76 [label="gini = 0.0\nsamples = 3\nvalue = [0, 3]\nclass = Survived 1", fillcolor="#399de5"] ;
75 -> 76 ;
77 [label="Fare <= 2.078\ngini = 0.444\nsamples = 3\nvalue = [1, 2]\nclass = Survived 1", fillcolor="#9ccef2"] ;
75 -> 77 ;
78 [label="gini = 0.0\nsamples = 1\nvalue = [1, 0]\nclass = Survived 0", fillcolor="#e58139"] ;
77 -> 78 ;
79 [label="gini = 0.0\nsamples = 2\nvalue = [0, 2]\nclass = Survived 1", fillcolor="#399de5"] ;
77 -> 79 ;
80 [label="gini = 0.0\nsamples = 2\nvalue = [2, 0]\nclass = Survived 0", fillcolor="#e58139"] ;
74 -> 80 ;
81 [label="Age <= 27.5\ngini = 0.219\nsamples = 8\nvalue = [1, 7]\nclass = Survived 1", fillcolor="#55abe9"] ;
73 -> 81 ;
82 [label="gini = 0.0\nsamples = 5\nvalue = [0, 5]\nclass = Survived 1", fillcolor="#399de5"] ;
81 -> 82 ;
83 [label="Age <= 28.5\ngini = 0.444\nsamples = 3\nvalue = [1, 2]\nclass = Survived 1", fillcolor="#9ccef2"] ;
81 -> 83 ;
84 [label="Fare <= 2.059\ngini = 0.5\nsamples = 2\nvalue = [1, 1]\nclass = Survived 0", fillcolor="#ffffff"] ;
83 -> 84 ;
85 [label="gini = 0.0\nsamples = 1\nvalue = [0, 1]\nclass = Survived 1", fillcolor="#399de5"] ;
84 -> 85 ;
86 [label="gini = 0.0\nsamples = 1\nvalue = [1, 0]\nclass = Survived 0", fillcolor="#e58139"] ;
84 -> 86 ;
87 [label="gini = 0.0\nsamples = 1\nvalue = [0, 1]\nclass = Survived 1", fillcolor="#399de5"] ;
83 -> 87 ;
88 [label="gini = 0.0\nsamples = 1\nvalue = [1, 0]\nclass = Survived 0", fillcolor="#e58139"] ;
72 -> 88 ;
89 [label="Age <= 30.75\ngini = 0.5\nsamples = 6\nvalue = [3, 3]\nclass = Survived 0", fillcolor="#ffffff"] ;
55 -> 89 ;
90 [label="gini = 0.0\nsamples = 2\nvalue = [2, 0]\nclass = Survived 0", fillcolor="#e58139"] ;
89 -> 90 ;
91 [label="Fare <= 2.054\ngini = 0.375\nsamples = 4\nvalue = [1, 3]\nclass = Survived 1", fillcolor="#7bbeee"] ;
89 -> 91 ;
92 [label="gini = 0.0\nsamples = 2\nvalue = [0, 2]\nclass = Survived 1", fillcolor="#399de5"] ;
91 -> 92 ;
93 [label="Fare <= 2.111\ngini = 0.5\nsamples = 2\nvalue = [1, 1]\nclass = Survived 0", fillcolor="#ffffff"] ;
91 -> 93 ;
94 [label="gini = 0.0\nsamples = 1\nvalue = [1, 0]\nclass = Survived 0", fillcolor="#e58139"] ;
93 -> 94 ;
95 [label="gini = 0.0\nsamples = 1\nvalue = [0, 1]\nclass = Survived 1", fillcolor="#399de5"] ;
93 -> 95 ;
96 [label="Fare <= 2.386\ngini = 0.5\nsamples = 33\nvalue = [16, 17]\nclass = Survived 1", fillcolor="#f3f9fd"] ;
52 -> 96 ;
97 [label="Age <= 19.0\ngini = 0.245\nsamples = 7\nvalue = [6, 1]\nclass = Survived 0", fillcolor="#e9965a"] ;
96 -> 97 ;
98 [label="gini = 0.0\nsamples = 1\nvalue = [0, 1]\nclass = Survived 1", fillcolor="#399de5"] ;
97 -> 98 ;
99 [label="gini = 0.0\nsamples = 6\nvalue = [6, 0]\nclass = Survived 0", fillcolor="#e58139"] ;
97 -> 99 ;
100 [label="Fare <= 2.65\ngini = 0.473\nsamples = 26\nvalue = [10, 16]\nclass = Survived 1", fillcolor="#b5daf5"] ;
96 -> 100 ;
101 [label="gini = 0.0\nsamples = 5\nvalue = [0, 5]\nclass = Survived 1", fillcolor="#399de5"] ;
100 -> 101 ;
102 [label="Fare <= 2.742\ngini = 0.499\nsamples = 21\nvalue = [10, 11]\nclass = Survived 1", fillcolor="#edf6fd"] ;
100 -> 102 ;
103 [label="Age <= 16.0\ngini = 0.375\nsamples = 8\nvalue = [6, 2]\nclass = Survived 0", fillcolor="#eeab7b"] ;
102 -> 103 ;
104 [label="Age <= 14.75\ngini = 0.5\nsamples = 4\nvalue = [2, 2]\nclass = Survived 0", fillcolor="#ffffff"] ;
103 -> 104 ;
105 [label="Fare <= 2.698\ngini = 0.444\nsamples = 3\nvalue = [2, 1]\nclass = Survived 0", fillcolor="#f2c09c"] ;
104 -> 105 ;
106 [label="gini = 0.0\nsamples = 1\nvalue = [1, 0]\nclass = Survived 0", fillcolor="#e58139"] ;
105 -> 106 ;
107 [label="gini = 0.5\nsamples = 2\nvalue = [1, 1]\nclass = Survived 0", fillcolor="#ffffff"] ;
105 -> 107 ;
108 [label="gini = 0.0\nsamples = 1\nvalue = [0, 1]\nclass = Survived 1", fillcolor="#399de5"] ;
104 -> 108 ;
109 [label="gini = 0.0\nsamples = 4\nvalue = [4, 0]\nclass = Survived 0", fillcolor="#e58139"] ;
103 -> 109 ;
110 [label="Fare <= 2.868\ngini = 0.426\nsamples = 13\nvalue = [4, 9]\nclass = Survived 1", fillcolor="#91c9f1"] ;
102 -> 110 ;
111 [label="Age <= 25.0\ngini = 0.219\nsamples = 8\nvalue = [1, 7]\nclass = Survived 1", fillcolor="#55abe9"] ;
110 -> 111 ;
112 [label="gini = 0.0\nsamples = 4\nvalue = [0, 4]\nclass = Survived 1", fillcolor="#399de5"] ;
111 -> 112 ;
113 [label="Age <= 28.0\ngini = 0.375\nsamples = 4\nvalue = [1, 3]\nclass = Survived 1", fillcolor="#7bbeee"] ;
111 -> 113 ;
114 [label="gini = 0.0\nsamples = 1\nvalue = [1, 0]\nclass = Survived 0", fillcolor="#e58139"] ;
113 -> 114 ;
115 [label="gini = 0.0\nsamples = 3\nvalue = [0, 3]\nclass = Survived 1", fillcolor="#399de5"] ;
113 -> 115 ;
116 [label="Fare <= 2.949\ngini = 0.48\nsamples = 5\nvalue = [3, 2]\nclass = Survived 0", fillcolor="#f6d5bd"] ;
110 -> 116 ;
117 [label="gini = 0.0\nsamples = 3\nvalue = [3, 0]\nclass = Survived 0", fillcolor="#e58139"] ;
116 -> 117 ;
118 [label="gini = 0.0\nsamples = 2\nvalue = [0, 2]\nclass = Survived 1", fillcolor="#399de5"] ;
116 -> 118 ;
119 [label="gini = 0.0\nsamples = 12\nvalue = [0, 12]\nclass = Survived 1", fillcolor="#399de5"] ;
47 -> 119 ;
120 [label="Age <= 55.0\ngini = 0.408\nsamples = 7\nvalue = [5, 2]\nclass = Survived 0", fillcolor="#efb388"] ;
46 -> 120 ;
121 [label="Fare <= 2.659\ngini = 0.278\nsamples = 6\nvalue = [5, 1]\nclass = Survived 0", fillcolor="#ea9a61"] ;
120 -> 121 ;
122 [label="Fare <= 2.448\ngini = 0.444\nsamples = 3\nvalue = [2, 1]\nclass = Survived 0", fillcolor="#f2c09c"] ;
121 -> 122 ;
123 [label="gini = 0.0\nsamples = 2\nvalue = [2, 0]\nclass = Survived 0", fillcolor="#e58139"] ;
122 -> 123 ;
124 [label="gini = 0.0\nsamples = 1\nvalue = [0, 1]\nclass = Survived 1", fillcolor="#399de5"] ;
122 -> 124 ;
125 [label="gini = 0.0\nsamples = 3\nvalue = [3, 0]\nclass = Survived 0", fillcolor="#e58139"] ;
121 -> 125 ;
126 [label="gini = 0.0\nsamples = 1\nvalue = [0, 1]\nclass = Survived 1", fillcolor="#399de5"] ;
120 -> 126 ;
127 [label="Parch <= 0.5\ngini = 0.355\nsamples = 26\nvalue = [20, 6]\nclass = Survived 0", fillcolor="#eda774"] ;
41 -> 127 ;
128 [label="gini = 0.0\nsamples = 1\nvalue = [0, 1]\nclass = Survived 1", fillcolor="#399de5"] ;
127 -> 128 ;
129 [label="Age <= 38.5\ngini = 0.32\nsamples = 25\nvalue = [20, 5]\nclass = Survived 0", fillcolor="#eca06a"] ;
127 -> 129 ;
130 [label="Parch <= 4.5\ngini = 0.388\nsamples = 19\nvalue = [14, 5]\nclass = Survived 0", fillcolor="#eeae80"] ;
129 -> 130 ;
131 [label="SibSp <= 1.5\ngini = 0.346\nsamples = 18\nvalue = [14, 4]\nclass = Survived 0", fillcolor="#eca572"] ;
130 -> 131 ;
132 [label="Fare <= 3.138\ngini = 0.48\nsamples = 5\nvalue = [3, 2]\nclass = Survived 0", fillcolor="#f6d5bd"] ;
131 -> 132 ;
133 [label="Age <= 27.5\ngini = 0.444\nsamples = 3\nvalue = [1, 2]\nclass = Survived 1", fillcolor="#9ccef2"] ;
132 -> 133 ;
134 [label="gini = 0.0\nsamples = 2\nvalue = [0, 2]\nclass = Survived 1", fillcolor="#399de5"] ;
133 -> 134 ;
135 [label="gini = 0.0\nsamples = 1\nvalue = [1, 0]\nclass = Survived 0", fillcolor="#e58139"] ;
133 -> 135 ;
136 [label="gini = 0.0\nsamples = 2\nvalue = [2, 0]\nclass = Survived 0", fillcolor="#e58139"] ;
132 -> 136 ;
137 [label="Fare <= 3.445\ngini = 0.26\nsamples = 13\nvalue = [11, 2]\nclass = Survived 0", fillcolor="#ea985d"] ;
131 -> 137 ;
138 [label="gini = 0.0\nsamples = 8\nvalue = [8, 0]\nclass = Survived 0", fillcolor="#e58139"] ;
137 -> 138 ;
139 [label="SibSp <= 3.0\ngini = 0.48\nsamples = 5\nvalue = [3, 2]\nclass = Survived 0", fillcolor="#f6d5bd"] ;
137 -> 139 ;
140 [label="gini = 0.0\nsamples = 2\nvalue = [2, 0]\nclass = Survived 0", fillcolor="#e58139"] ;
139 -> 140 ;
141 [label="Age <= 13.0\ngini = 0.444\nsamples = 3\nvalue = [1, 2]\nclass = Survived 1", fillcolor="#9ccef2"] ;
139 -> 141 ;
142 [label="gini = 0.0\nsamples = 2\nvalue = [0, 2]\nclass = Survived 1", fillcolor="#399de5"] ;
141 -> 142 ;
143 [label="gini = 0.0\nsamples = 1\nvalue = [1, 0]\nclass = Survived 0", fillcolor="#e58139"] ;
141 -> 143 ;
144 [label="gini = 0.0\nsamples = 1\nvalue = [0, 1]\nclass = Survived 1", fillcolor="#399de5"] ;
130 -> 144 ;
145 [label="gini = 0.0\nsamples = 6\nvalue = [6, 0]\nclass = Survived 0", fillcolor="#e58139"] ;
129 -> 145 ;
146 [label="Age <= 4.5\ngini = 0.243\nsamples = 657\nvalue = [564, 93]\nclass = Survived 0", fillcolor="#e9965a"] ;
0 -> 146 [labeldistance=2.5, labelangle=-45, headlabel="False"] ;
147 [label="SibSp <= 2.5\ngini = 0.494\nsamples = 27\nvalue = [12, 15]\nclass = Survived 1", fillcolor="#d7ebfa"] ;
146 -> 147 ;
148 [label="Fare <= 2.671\ngini = 0.346\nsamples = 18\nvalue = [4, 14]\nclass = Survived 1", fillcolor="#72b9ec"] ;
147 -> 148 ;
149 [label="Fare <= 2.516\ngini = 0.48\nsamples = 5\nvalue = [3, 2]\nclass = Survived 0", fillcolor="#f6d5bd"] ;
148 -> 149 ;
150 [label="Age <= 0.625\ngini = 0.444\nsamples = 3\nvalue = [1, 2]\nclass = Survived 1", fillcolor="#9ccef2"] ;
149 -> 150 ;
151 [label="gini = 0.0\nsamples = 1\nvalue = [0, 1]\nclass = Survived 1", fillcolor="#399de5"] ;
150 -> 151 ;
152 [label="SibSp <= 0.5\ngini = 0.5\nsamples = 2\nvalue = [1, 1]\nclass = Survived 0", fillcolor="#ffffff"] ;
150 -> 152 ;
153 [label="gini = 0.0\nsamples = 1\nvalue = [1, 0]\nclass = Survived 0", fillcolor="#e58139"] ;
152 -> 153 ;
154 [label="gini = 0.0\nsamples = 1\nvalue = [0, 1]\nclass = Survived 1", fillcolor="#399de5"] ;
152 -> 154 ;
155 [label="gini = 0.0\nsamples = 2\nvalue = [2, 0]\nclass = Survived 0", fillcolor="#e58139"] ;
149 -> 155 ;
156 [label="Age <= 1.5\ngini = 0.142\nsamples = 13\nvalue = [1, 12]\nclass = Survived 1", fillcolor="#49a5e7"] ;
148 -> 156 ;
157 [label="gini = 0.0\nsamples = 7\nvalue = [0, 7]\nclass = Survived 1", fillcolor="#399de5"] ;
156 -> 157 ;
158 [label="Age <= 2.5\ngini = 0.278\nsamples = 6\nvalue = [1, 5]\nclass = Survived 1", fillcolor="#61b1ea"] ;
156 -> 158 ;
159 [label="Fare <= 3.197\ngini = 0.5\nsamples = 2\nvalue = [1, 1]\nclass = Survived 0", fillcolor="#ffffff"] ;
158 -> 159 ;
160 [label="gini = 0.0\nsamples = 1\nvalue = [1, 0]\nclass = Survived 0", fillcolor="#e58139"] ;
159 -> 160 ;
161 [label="gini = 0.0\nsamples = 1\nvalue = [0, 1]\nclass = Survived 1", fillcolor="#399de5"] ;
159 -> 161 ;
162 [label="gini = 0.0\nsamples = 4\nvalue = [0, 4]\nclass = Survived 1", fillcolor="#399de5"] ;
158 -> 162 ;
163 [label="Fare <= 3.445\ngini = 0.198\nsamples = 9\nvalue = [8, 1]\nclass = Survived 0", fillcolor="#e89152"] ;
147 -> 163 ;
164 [label="gini = 0.0\nsamples = 5\nvalue = [5, 0]\nclass = Survived 0", fillcolor="#e58139"] ;
163 -> 164 ;
165 [label="Age <= 2.5\ngini = 0.375\nsamples = 4\nvalue = [3, 1]\nclass = Survived 0", fillcolor="#eeab7b"] ;
163 -> 165 ;
166 [label="gini = 0.0\nsamples = 3\nvalue = [3, 0]\nclass = Survived 0", fillcolor="#e58139"] ;
165 -> 166 ;
167 [label="gini = 0.0\nsamples = 1\nvalue = [0, 1]\nclass = Survived 1", fillcolor="#399de5"] ;
165 -> 167 ;
168 [label="Fare <= 3.268\ngini = 0.217\nsamples = 630\nvalue = [552, 78]\nclass = Survived 0", fillcolor="#e99355"] ;
146 -> 168 ;
169 [label="Age <= 12.5\ngini = 0.149\nsamples = 444\nvalue = [408, 36]\nclass = Survived 0", fillcolor="#e78c4a"] ;
168 -> 169 ;
170 [label="Parch <= 1.5\ngini = 0.48\nsamples = 10\nvalue = [6, 4]\nclass = Survived 0", fillcolor="#f6d5bd"] ;
169 -> 170 ;
171 [label="Fare <= 2.599\ngini = 0.444\nsamples = 9\nvalue = [6, 3]\nclass = Survived 0", fillcolor="#f2c09c"] ;
170 -> 171 ;
172 [label="Fare <= 1.787\ngini = 0.444\nsamples = 3\nvalue = [1, 2]\nclass = Survived 1", fillcolor="#9ccef2"] ;
171 -> 172 ;
173 [label="gini = 0.0\nsamples = 1\nvalue = [1, 0]\nclass = Survived 0", fillcolor="#e58139"] ;
172 -> 173 ;
174 [label="gini = 0.0\nsamples = 2\nvalue = [0, 2]\nclass = Survived 1", fillcolor="#399de5"] ;
172 -> 174 ;
175 [label="Age <= 8.0\ngini = 0.278\nsamples = 6\nvalue = [5, 1]\nclass = Survived 0", fillcolor="#ea9a61"] ;
171 -> 175 ;
176 [label="gini = 0.0\nsamples = 3\nvalue = [3, 0]\nclass = Survived 0", fillcolor="#e58139"] ;
175 -> 176 ;
177 [label="Age <= 10.0\ngini = 0.444\nsamples = 3\nvalue = [2, 1]\nclass = Survived 0", fillcolor="#f2c09c"] ;
175 -> 177 ;
178 [label="gini = 0.0\nsamples = 1\nvalue = [0, 1]\nclass = Survived 1", fillcolor="#399de5"] ;
177 -> 178 ;
179 [label="gini = 0.0\nsamples = 2\nvalue = [2, 0]\nclass = Survived 0", fillcolor="#e58139"] ;
177 -> 179 ;
180 [label="gini = 0.0\nsamples = 1\nvalue = [0, 1]\nclass = Survived 1", fillcolor="#399de5"] ;
170 -> 180 ;
181 [label="Fare <= 2.397\ngini = 0.137\nsamples = 434\nvalue = [402, 32]\nclass = Survived 0", fillcolor="#e78b49"] ;
169 -> 181 ;
182 [label="Fare <= 2.068\ngini = 0.163\nsamples = 291\nvalue = [265, 26]\nclass = Survived 0", fillcolor="#e88d4c"] ;
181 -> 182 ;
183 [label="Age <= 32.5\ngini = 0.122\nsamples = 169\nvalue = [158, 11]\nclass = Survived 0", fillcolor="#e78a47"] ;
182 -> 183 ;
184 [label="Fare <= 0.695\ngini = 0.162\nsamples = 124\nvalue = [113, 11]\nclass = Survived 0", fillcolor="#e88d4c"] ;
183 -> 184 ;
185 [label="Age <= 22.0\ngini = 0.5\nsamples = 2\nvalue = [1, 1]\nclass = Survived 0", fillcolor="#ffffff"] ;
184 -> 185 ;
186 [label="gini = 0.0\nsamples = 1\nvalue = [1, 0]\nclass = Survived 0", fillcolor="#e58139"] ;
185 -> 186 ;
187 [label="gini = 0.0\nsamples = 1\nvalue = [0, 1]\nclass = Survived 1", fillcolor="#399de5"] ;
185 -> 187 ;
188 [label="Age <= 26.75\ngini = 0.15\nsamples = 122\nvalue = [112, 10]\nclass = Survived 0", fillcolor="#e78c4b"] ;
184 -> 188 ;
189 [label="Fare <= 1.98\ngini = 0.103\nsamples = 92\nvalue = [87, 5]\nclass = Survived 0", fillcolor="#e68844"] ;
188 -> 189 ;
190 [label="Fare <= 1.965\ngini = 0.198\nsamples = 27\nvalue = [24, 3]\nclass = Survived 0", fillcolor="#e89152"] ;
189 -> 190 ;
191 [label="gini = 0.0\nsamples = 12\nvalue = [12, 0]\nclass = Survived 0", fillcolor="#e58139"] ;
190 -> 191 ;
192 [label="Fare <= 1.972\ngini = 0.32\nsamples = 15\nvalue = [12, 3]\nclass = Survived 0", fillcolor="#eca06a"] ;
190 -> 192 ;
193 [label="gini = 0.0\nsamples = 1\nvalue = [0, 1]\nclass = Survived 1", fillcolor="#399de5"] ;
192 -> 193 ;
194 [label="Age <= 22.25\ngini = 0.245\nsamples = 14\nvalue = [12, 2]\nclass = Survived 0", fillcolor="#e9965a"] ;
192 -> 194 ;
195 [label="Age <= 19.25\ngini = 0.346\nsamples = 9\nvalue = [7, 2]\nclass = Survived 0", fillcolor="#eca572"] ;
194 -> 195 ;
196 [label="gini = 0.0\nsamples = 3\nvalue = [3, 0]\nclass = Survived 0", fillcolor="#e58139"] ;
195 -> 196 ;
197 [label="Fare <= 1.978\ngini = 0.444\nsamples = 6\nvalue = [4, 2]\nclass = Survived 0", fillcolor="#f2c09c"] ;
195 -> 197 ;
198 [label="Age <= 21.5\ngini = 0.375\nsamples = 4\nvalue = [3, 1]\nclass = Survived 0", fillcolor="#eeab7b"] ;
197 -> 198 ;
199 [label="gini = 0.0\nsamples = 2\nvalue = [2, 0]\nclass = Survived 0", fillcolor="#e58139"] ;
198 -> 199 ;
200 [label="gini = 0.5\nsamples = 2\nvalue = [1, 1]\nclass = Survived 0", fillcolor="#ffffff"] ;
198 -> 200 ;
201 [label="Age <= 21.0\ngini = 0.5\nsamples = 2\nvalue = [1, 1]\nclass = Survived 0", fillcolor="#ffffff"] ;
197 -> 201 ;
202 [label="gini = 0.0\nsamples = 1\nvalue = [0, 1]\nclass = Survived 1", fillcolor="#399de5"] ;
201 -> 202 ;
203 [label="gini = 0.0\nsamples = 1\nvalue = [1, 0]\nclass = Survived 0", fillcolor="#e58139"] ;
201 -> 203 ;
204 [label="gini = 0.0\nsamples = 5\nvalue = [5, 0]\nclass = Survived 0", fillcolor="#e58139"] ;
194 -> 204 ;
205 [label="SibSp <= 0.5\ngini = 0.06\nsamples = 65\nvalue = [63, 2]\nclass = Survived 0", fillcolor="#e6853f"] ;
189 -> 205 ;
206 [label="Age <= 21.5\ngini = 0.033\nsamples = 60\nvalue = [59, 1]\nclass = Survived 0", fillcolor="#e5833c"] ;
205 -> 206 ;
207 [label="Age <= 20.75\ngini = 0.071\nsamples = 27\nvalue = [26, 1]\nclass = Survived 0", fillcolor="#e68641"] ;
206 -> 207 ;
208 [label="gini = 0.0\nsamples = 15\nvalue = [15, 0]\nclass = Survived 0", fillcolor="#e58139"] ;
207 -> 208 ;
209 [label="Fare <= 2.052\ngini = 0.153\nsamples = 12\nvalue = [11, 1]\nclass = Survived 0", fillcolor="#e78c4b"] ;
207 -> 209 ;
210 [label="gini = 0.0\nsamples = 5\nvalue = [5, 0]\nclass = Survived 0", fillcolor="#e58139"] ;
209 -> 210 ;
211 [label="Fare <= 2.054\ngini = 0.245\nsamples = 7\nvalue = [6, 1]\nclass = Survived 0", fillcolor="#e9965a"] ;
209 -> 211 ;
212 [label="gini = 0.5\nsamples = 2\nvalue = [1, 1]\nclass = Survived 0", fillcolor="#ffffff"] ;
211 -> 212 ;
213 [label="gini = 0.0\nsamples = 5\nvalue = [5, 0]\nclass = Survived 0", fillcolor="#e58139"] ;
211 -> 213 ;
214 [label="gini = 0.0\nsamples = 33\nvalue = [33, 0]\nclass = Survived 0", fillcolor="#e58139"] ;
206 -> 214 ;
215 [label="Age <= 23.5\ngini = 0.32\nsamples = 5\nvalue = [4, 1]\nclass = Survived 0", fillcolor="#eca06a"] ;
205 -> 215 ;
216 [label="gini = 0.0\nsamples = 2\nvalue = [2, 0]\nclass = Survived 0", fillcolor="#e58139"] ;
215 -> 216 ;
217 [label="Age <= 25.5\ngini = 0.444\nsamples = 3\nvalue = [2, 1]\nclass = Survived 0", fillcolor="#f2c09c"] ;
215 -> 217 ;
218 [label="gini = 0.5\nsamples = 2\nvalue = [1, 1]\nclass = Survived 0", fillcolor="#ffffff"] ;
217 -> 218 ;
219 [label="gini = 0.0\nsamples = 1\nvalue = [1, 0]\nclass = Survived 0", fillcolor="#e58139"] ;
217 -> 219 ;
220 [label="Fare <= 1.947\ngini = 0.278\nsamples = 30\nvalue = [25, 5]\nclass = Survived 0", fillcolor="#ea9a61"] ;
188 -> 220 ;
221 [label="gini = 0.0\nsamples = 1\nvalue = [0, 1]\nclass = Survived 1", fillcolor="#399de5"] ;
220 -> 221 ;
222 [label="Fare <= 2.047\ngini = 0.238\nsamples = 29\nvalue = [25, 4]\nclass = Survived 0", fillcolor="#e99559"] ;
220 -> 222 ;
223 [label="gini = 0.0\nsamples = 9\nvalue = [9, 0]\nclass = Survived 0", fillcolor="#e58139"] ;
222 -> 223 ;
224 [label="Fare <= 2.062\ngini = 0.32\nsamples = 20\nvalue = [16, 4]\nclass = Survived 0", fillcolor="#eca06a"] ;
222 -> 224 ;
225 [label="Age <= 27.5\ngini = 0.375\nsamples = 12\nvalue = [9, 3]\nclass = Survived 0", fillcolor="#eeab7b"] ;
224 -> 225 ;
226 [label="Fare <= 2.057\ngini = 0.5\nsamples = 2\nvalue = [1, 1]\nclass = Survived 0", fillcolor="#ffffff"] ;
225 -> 226 ;
227 [label="gini = 0.0\nsamples = 1\nvalue = [0, 1]\nclass = Survived 1", fillcolor="#399de5"] ;
226 -> 227 ;
228 [label="gini = 0.0\nsamples = 1\nvalue = [1, 0]\nclass = Survived 0", fillcolor="#e58139"] ;
226 -> 228 ;
229 [label="Age <= 28.5\ngini = 0.32\nsamples = 10\nvalue = [8, 2]\nclass = Survived 0", fillcolor="#eca06a"] ;
225 -> 229 ;
230 [label="gini = 0.0\nsamples = 2\nvalue = [2, 0]\nclass = Survived 0", fillcolor="#e58139"] ;
229 -> 230 ;
231 [label="Fare <= 2.056\ngini = 0.375\nsamples = 8\nvalue = [6, 2]\nclass = Survived 0", fillcolor="#eeab7b"] ;
229 -> 231 ;
232 [label="Age <= 30.0\ngini = 0.278\nsamples = 6\nvalue = [5, 1]\nclass = Survived 0", fillcolor="#ea9a61"] ;
231 -> 232 ;
233 [label="Fare <= 2.049\ngini = 0.5\nsamples = 2\nvalue = [1, 1]\nclass = Survived 0", fillcolor="#ffffff"] ;
232 -> 233 ;
234 [label="gini = 0.0\nsamples = 1\nvalue = [0, 1]\nclass = Survived 1", fillcolor="#399de5"] ;
233 -> 234 ;
235 [label="gini = 0.0\nsamples = 1\nvalue = [1, 0]\nclass = Survived 0", fillcolor="#e58139"] ;
233 -> 235 ;
236 [label="gini = 0.0\nsamples = 4\nvalue = [4, 0]\nclass = Survived 0", fillcolor="#e58139"] ;
232 -> 236 ;
237 [label="Age <= 30.5\ngini = 0.5\nsamples = 2\nvalue = [1, 1]\nclass = Survived 0", fillcolor="#ffffff"] ;
231 -> 237 ;
238 [label="gini = 0.0\nsamples = 1\nvalue = [1, 0]\nclass = Survived 0", fillcolor="#e58139"] ;
237 -> 238 ;
239 [label="gini = 0.0\nsamples = 1\nvalue = [0, 1]\nclass = Survived 1", fillcolor="#399de5"] ;
237 -> 239 ;
240 [label="Age <= 28.5\ngini = 0.219\nsamples = 8\nvalue = [7, 1]\nclass = Survived 0", fillcolor="#e99355"] ;
224 -> 240 ;
241 [label="gini = 0.0\nsamples = 4\nvalue = [4, 0]\nclass = Survived 0", fillcolor="#e58139"] ;
240 -> 241 ;
242 [label="Age <= 29.5\ngini = 0.375\nsamples = 4\nvalue = [3, 1]\nclass = Survived 0", fillcolor="#eeab7b"] ;
240 -> 242 ;
243 [label="Fare <= 2.065\ngini = 0.5\nsamples = 2\nvalue = [1, 1]\nclass = Survived 0", fillcolor="#ffffff"] ;
242 -> 243 ;
244 [label="gini = 0.0\nsamples = 1\nvalue = [1, 0]\nclass = Survived 0", fillcolor="#e58139"] ;
243 -> 244 ;
245 [label="gini = 0.0\nsamples = 1\nvalue = [0, 1]\nclass = Survived 1", fillcolor="#399de5"] ;
243 -> 245 ;
246 [label="gini = 0.0\nsamples = 2\nvalue = [2, 0]\nclass = Survived 0", fillcolor="#e58139"] ;
242 -> 246 ;
247 [label="gini = 0.0\nsamples = 45\nvalue = [45, 0]\nclass = Survived 0", fillcolor="#e58139"] ;
183 -> 247 ;
248 [label="Fare <= 2.078\ngini = 0.216\nsamples = 122\nvalue = [107, 15]\nclass = Survived 0", fillcolor="#e99355"] ;
182 -> 248 ;
249 [label="Age <= 30.0\ngini = 0.43\nsamples = 16\nvalue = [11, 5]\nclass = Survived 0", fillcolor="#f1ba93"] ;
248 -> 249 ;
250 [label="SibSp <= 0.5\ngini = 0.219\nsamples = 8\nvalue = [7, 1]\nclass = Survived 0", fillcolor="#e99355"] ;
249 -> 250 ;
251 [label="gini = 0.0\nsamples = 6\nvalue = [6, 0]\nclass = Survived 0", fillcolor="#e58139"] ;
250 -> 251 ;
252 [label="Age <= 24.0\ngini = 0.5\nsamples = 2\nvalue = [1, 1]\nclass = Survived 0", fillcolor="#ffffff"] ;
250 -> 252 ;
253 [label="gini = 0.0\nsamples = 1\nvalue = [0, 1]\nclass = Survived 1", fillcolor="#399de5"] ;
252 -> 253 ;
254 [label="gini = 0.0\nsamples = 1\nvalue = [1, 0]\nclass = Survived 0", fillcolor="#e58139"] ;
252 -> 254 ;
255 [label="Age <= 31.5\ngini = 0.5\nsamples = 8\nvalue = [4, 4]\nclass = Survived 0", fillcolor="#ffffff"] ;
249 -> 255 ;
256 [label="gini = 0.0\nsamples = 1\nvalue = [0, 1]\nclass = Survived 1", fillcolor="#399de5"] ;
255 -> 256 ;
257 [label="Age <= 41.5\ngini = 0.49\nsamples = 7\nvalue = [4, 3]\nclass = Survived 0", fillcolor="#f8e0ce"] ;
255 -> 257 ;
258 [label="SibSp <= 1.0\ngini = 0.444\nsamples = 6\nvalue = [4, 2]\nclass = Survived 0", fillcolor="#f2c09c"] ;
257 -> 258 ;
259 [label="Age <= 35.5\ngini = 0.48\nsamples = 5\nvalue = [3, 2]\nclass = Survived 0", fillcolor="#f6d5bd"] ;
258 -> 259 ;
260 [label="gini = 0.444\nsamples = 3\nvalue = [2, 1]\nclass = Survived 0", fillcolor="#f2c09c"] ;
259 -> 260 ;
261 [label="gini = 0.5\nsamples = 2\nvalue = [1, 1]\nclass = Survived 0", fillcolor="#ffffff"] ;
259 -> 261 ;
262 [label="gini = 0.0\nsamples = 1\nvalue = [1, 0]\nclass = Survived 0", fillcolor="#e58139"] ;
258 -> 262 ;
263 [label="gini = 0.0\nsamples = 1\nvalue = [0, 1]\nclass = Survived 1", fillcolor="#399de5"] ;
257 -> 263 ;
264 [label="Age <= 19.5\ngini = 0.171\nsamples = 106\nvalue = [96, 10]\nclass = Survived 0", fillcolor="#e88e4e"] ;
248 -> 264 ;
265 [label="Fare <= 2.092\ngini = 0.298\nsamples = 22\nvalue = [18, 4]\nclass = Survived 0", fillcolor="#eb9d65"] ;
264 -> 265 ;
266 [label="SibSp <= 1.0\ngini = 0.5\nsamples = 6\nvalue = [3, 3]\nclass = Survived 0", fillcolor="#ffffff"] ;
265 -> 266 ;
267 [label="Age <= 17.0\ngini = 0.48\nsamples = 5\nvalue = [2, 3]\nclass = Survived 1", fillcolor="#bddef6"] ;
266 -> 267 ;
268 [label="gini = 0.5\nsamples = 2\nvalue = [1, 1]\nclass = Survived 0", fillcolor="#ffffff"] ;
267 -> 268 ;
269 [label="Age <= 18.5\ngini = 0.444\nsamples = 3\nvalue = [1, 2]\nclass = Survived 1", fillcolor="#9ccef2"] ;
267 -> 269 ;
270 [label="gini = 0.0\nsamples = 1\nvalue = [0, 1]\nclass = Survived 1", fillcolor="#399de5"] ;
269 -> 270 ;
271 [label="gini = 0.5\nsamples = 2\nvalue = [1, 1]\nclass = Survived 0", fillcolor="#ffffff"] ;
269 -> 271 ;
272 [label="gini = 0.0\nsamples = 1\nvalue = [1, 0]\nclass = Survived 0", fillcolor="#e58139"] ;
266 -> 272 ;
273 [label="Pclass_3 <= 0.5\ngini = 0.117\nsamples = 16\nvalue = [15, 1]\nclass = Survived 0", fillcolor="#e78946"] ;
265 -> 273 ;
274 [label="Age <= 18.5\ngini = 0.32\nsamples = 5\nvalue = [4, 1]\nclass = Survived 0", fillcolor="#eca06a"] ;
273 -> 274 ;
275 [label="gini = 0.0\nsamples = 2\nvalue = [2, 0]\nclass = Survived 0", fillcolor="#e58139"] ;
274 -> 275 ;
276 [label="gini = 0.444\nsamples = 3\nvalue = [2, 1]\nclass = Survived 0", fillcolor="#f2c09c"] ;
274 -> 276 ;
277 [label="gini = 0.0\nsamples = 11\nvalue = [11, 0]\nclass = Survived 0", fillcolor="#e58139"] ;
273 -> 277 ;
278 [label="Age <= 26.5\ngini = 0.133\nsamples = 84\nvalue = [78, 6]\nclass = Survived 0", fillcolor="#e78b48"] ;
264 -> 278 ;
279 [label="gini = 0.0\nsamples = 34\nvalue = [34, 0]\nclass = Survived 0", fillcolor="#e58139"] ;
278 -> 279 ;
280 [label="Age <= 32.25\ngini = 0.211\nsamples = 50\nvalue = [44, 6]\nclass = Survived 0", fillcolor="#e99254"] ;
278 -> 280 ;
281 [label="Fare <= 2.301\ngini = 0.298\nsamples = 22\nvalue = [18, 4]\nclass = Survived 0", fillcolor="#eb9d65"] ;
280 -> 281 ;
282 [label="Fare <= 2.25\ngini = 0.375\nsamples = 16\nvalue = [12, 4]\nclass = Survived 0", fillcolor="#eeab7b"] ;
281 -> 282 ;
283 [label="Age <= 27.5\ngini = 0.278\nsamples = 12\nvalue = [10, 2]\nclass = Survived 0", fillcolor="#ea9a61"] ;
282 -> 283 ;
284 [label="gini = 0.444\nsamples = 3\nvalue = [2, 1]\nclass = Survived 0", fillcolor="#f2c09c"] ;
283 -> 284 ;
285 [label="Age <= 31.25\ngini = 0.198\nsamples = 9\nvalue = [8, 1]\nclass = Survived 0", fillcolor="#e89152"] ;
283 -> 285 ;
286 [label="gini = 0.0\nsamples = 6\nvalue = [6, 0]\nclass = Survived 0", fillcolor="#e58139"] ;
285 -> 286 ;
287 [label="Fare <= 2.105\ngini = 0.444\nsamples = 3\nvalue = [2, 1]\nclass = Survived 0", fillcolor="#f2c09c"] ;
285 -> 287 ;
288 [label="gini = 0.5\nsamples = 2\nvalue = [1, 1]\nclass = Survived 0", fillcolor="#ffffff"] ;
287 -> 288 ;
289 [label="gini = 0.0\nsamples = 1\nvalue = [1, 0]\nclass = Survived 0", fillcolor="#e58139"] ;
287 -> 289 ;
290 [label="Age <= 28.5\ngini = 0.5\nsamples = 4\nvalue = [2, 2]\nclass = Survived 0", fillcolor="#ffffff"] ;
282 -> 290 ;
291 [label="gini = 0.0\nsamples = 2\nvalue = [2, 0]\nclass = Survived 0", fillcolor="#e58139"] ;
290 -> 291 ;
292 [label="gini = 0.0\nsamples = 2\nvalue = [0, 2]\nclass = Survived 1", fillcolor="#399de5"] ;
290 -> 292 ;
293 [label="gini = 0.0\nsamples = 6\nvalue = [6, 0]\nclass = Survived 0", fillcolor="#e58139"] ;
281 -> 293 ;
294 [label="Age <= 44.5\ngini = 0.133\nsamples = 28\nvalue = [26, 2]\nclass = Survived 0", fillcolor="#e78b48"] ;
280 -> 294 ;
295 [label="gini = 0.0\nsamples = 18\nvalue = [18, 0]\nclass = Survived 0", fillcolor="#e58139"] ;
294 -> 295 ;
296 [label="Age <= 46.0\ngini = 0.32\nsamples = 10\nvalue = [8, 2]\nclass = Survived 0", fillcolor="#eca06a"] ;
294 -> 296 ;
297 [label="gini = 0.0\nsamples = 1\nvalue = [0, 1]\nclass = Survived 1", fillcolor="#399de5"] ;
296 -> 297 ;
298 [label="Fare <= 2.311\ngini = 0.198\nsamples = 9\nvalue = [8, 1]\nclass = Survived 0", fillcolor="#e89152"] ;
296 -> 298 ;
299 [label="gini = 0.0\nsamples = 5\nvalue = [5, 0]\nclass = Survived 0", fillcolor="#e58139"] ;
298 -> 299 ;
300 [label="Age <= 64.0\ngini = 0.375\nsamples = 4\nvalue = [3, 1]\nclass = Survived 0", fillcolor="#eeab7b"] ;
298 -> 300 ;
301 [label="Age <= 54.5\ngini = 0.5\nsamples = 2\nvalue = [1, 1]\nclass = Survived 0", fillcolor="#ffffff"] ;
300 -> 301 ;
302 [label="gini = 0.0\nsamples = 1\nvalue = [1, 0]\nclass = Survived 0", fillcolor="#e58139"] ;
301 -> 302 ;
303 [label="gini = 0.0\nsamples = 1\nvalue = [0, 1]\nclass = Survived 1", fillcolor="#399de5"] ;
301 -> 303 ;
304 [label="gini = 0.0\nsamples = 2\nvalue = [2, 0]\nclass = Survived 0", fillcolor="#e58139"] ;
300 -> 304 ;
305 [label="Age <= 42.5\ngini = 0.08\nsamples = 143\nvalue = [137, 6]\nclass = Survived 0", fillcolor="#e68742"] ;
181 -> 305 ;
306 [label="Age <= 41.5\ngini = 0.098\nsamples = 116\nvalue = [110, 6]\nclass = Survived 0", fillcolor="#e68844"] ;
305 -> 306 ;
307 [label="Age <= 34.5\ngini = 0.085\nsamples = 113\nvalue = [108, 5]\nclass = Survived 0", fillcolor="#e68742"] ;
306 -> 307 ;
308 [label="Age <= 30.5\ngini = 0.107\nsamples = 88\nvalue = [83, 5]\nclass = Survived 0", fillcolor="#e78945"] ;
307 -> 308 ;
309 [label="Pclass_3 <= 0.5\ngini = 0.056\nsamples = 70\nvalue = [68, 2]\nclass = Survived 0", fillcolor="#e6853f"] ;
308 -> 309 ;
310 [label="gini = 0.0\nsamples = 47\nvalue = [47, 0]\nclass = Survived 0", fillcolor="#e58139"] ;
309 -> 310 ;
311 [label="Fare <= 2.97\ngini = 0.159\nsamples = 23\nvalue = [21, 2]\nclass = Survived 0", fillcolor="#e78d4c"] ;
309 -> 311 ;
312 [label="Parch <= 0.5\ngini = 0.245\nsamples = 14\nvalue = [12, 2]\nclass = Survived 0", fillcolor="#e9965a"] ;
311 -> 312 ;
313 [label="Fare <= 2.912\ngini = 0.142\nsamples = 13\nvalue = [12, 1]\nclass = Survived 0", fillcolor="#e78c49"] ;
312 -> 313 ;
314 [label="gini = 0.0\nsamples = 12\nvalue = [12, 0]\nclass = Survived 0", fillcolor="#e58139"] ;
313 -> 314 ;
315 [label="gini = 0.0\nsamples = 1\nvalue = [0, 1]\nclass = Survived 1", fillcolor="#399de5"] ;
313 -> 315 ;
316 [label="gini = 0.0\nsamples = 1\nvalue = [0, 1]\nclass = Survived 1", fillcolor="#399de5"] ;
312 -> 316 ;
317 [label="gini = 0.0\nsamples = 9\nvalue = [9, 0]\nclass = Survived 0", fillcolor="#e58139"] ;
311 -> 317 ;
318 [label="Fare <= 2.584\ngini = 0.278\nsamples = 18\nvalue = [15, 3]\nclass = Survived 0", fillcolor="#ea9a61"] ;
308 -> 318 ;
319 [label="Age <= 31.5\ngini = 0.444\nsamples = 6\nvalue = [4, 2]\nclass = Survived 0", fillcolor="#f2c09c"] ;
318 -> 319 ;
320 [label="gini = 0.0\nsamples = 1\nvalue = [0, 1]\nclass = Survived 1", fillcolor="#399de5"] ;
319 -> 320 ;
321 [label="Age <= 33.5\ngini = 0.32\nsamples = 5\nvalue = [4, 1]\nclass = Survived 0", fillcolor="#eca06a"] ;
319 -> 321 ;
322 [label="gini = 0.0\nsamples = 2\nvalue = [2, 0]\nclass = Survived 0", fillcolor="#e58139"] ;
321 -> 322 ;
323 [label="gini = 0.444\nsamples = 3\nvalue = [2, 1]\nclass = Survived 0", fillcolor="#f2c09c"] ;
321 -> 323 ;
324 [label="Fare <= 3.186\ngini = 0.153\nsamples = 12\nvalue = [11, 1]\nclass = Survived 0", fillcolor="#e78c4b"] ;
318 -> 324 ;
325 [label="gini = 0.0\nsamples = 8\nvalue = [8, 0]\nclass = Survived 0", fillcolor="#e58139"] ;
324 -> 325 ;
326 [label="Age <= 33.0\ngini = 0.375\nsamples = 4\nvalue = [3, 1]\nclass = Survived 0", fillcolor="#eeab7b"] ;
324 -> 326 ;
327 [label="Fare <= 3.263\ngini = 0.5\nsamples = 2\nvalue = [1, 1]\nclass = Survived 0", fillcolor="#ffffff"] ;
326 -> 327 ;
328 [label="gini = 0.0\nsamples = 1\nvalue = [0, 1]\nclass = Survived 1", fillcolor="#399de5"] ;
327 -> 328 ;
329 [label="gini = 0.0\nsamples = 1\nvalue = [1, 0]\nclass = Survived 0", fillcolor="#e58139"] ;
327 -> 329 ;
330 [label="gini = 0.0\nsamples = 2\nvalue = [2, 0]\nclass = Survived 0", fillcolor="#e58139"] ;
326 -> 330 ;
331 [label="gini = 0.0\nsamples = 25\nvalue = [25, 0]\nclass = Survived 0", fillcolor="#e58139"] ;
307 -> 331 ;
332 [label="gini = 0.444\nsamples = 3\nvalue = [2, 1]\nclass = Survived 0", fillcolor="#f2c09c"] ;
306 -> 332 ;
333 [label="gini = 0.0\nsamples = 27\nvalue = [27, 0]\nclass = Survived 0", fillcolor="#e58139"] ;
305 -> 333 ;
334 [label="Fare <= 3.276\ngini = 0.35\nsamples = 186\nvalue = [144, 42]\nclass = Survived 0", fillcolor="#eda673"] ;
168 -> 334 ;
335 [label="gini = 0.0\nsamples = 4\nvalue = [0, 4]\nclass = Survived 1", fillcolor="#399de5"] ;
334 -> 335 ;
336 [label="Fare <= 5.906\ngini = 0.33\nsamples = 182\nvalue = [144, 38]\nclass = Survived 0", fillcolor="#eca26d"] ;
334 -> 336 ;
337 [label="Fare <= 4.898\ngini = 0.32\nsamples = 180\nvalue = [144, 36]\nclass = Survived 0", fillcolor="#eca06a"] ;
336 -> 337 ;
338 [label="Fare <= 4.759\ngini = 0.346\nsamples = 162\nvalue = [126, 36]\nclass = Survived 0", fillcolor="#eca572"] ;
337 -> 338 ;
339 [label="SibSp <= 1.5\ngini = 0.329\nsamples = 159\nvalue = [126, 33]\nclass = Survived 0", fillcolor="#eca26d"] ;
338 -> 339 ;
340 [label="Pclass_2 <= 0.5\ngini = 0.364\nsamples = 138\nvalue = [105, 33]\nclass = Survived 0", fillcolor="#eda977"] ;
339 -> 340 ;
341 [label="Age <= 35.5\ngini = 0.395\nsamples = 118\nvalue = [86, 32]\nclass = Survived 0", fillcolor="#efb083"] ;
340 -> 341 ;
342 [label="Age <= 31.5\ngini = 0.489\nsamples = 40\nvalue = [23, 17]\nclass = Survived 0", fillcolor="#f8decb"] ;
341 -> 342 ;
343 [label="Age <= 28.25\ngini = 0.457\nsamples = 34\nvalue = [22, 12]\nclass = Survived 0", fillcolor="#f3c6a5"] ;
342 -> 343 ;
344 [label="Age <= 24.5\ngini = 0.497\nsamples = 24\nvalue = [13, 11]\nclass = Survived 0", fillcolor="#fbece1"] ;
343 -> 344 ;
345 [label="Fare <= 4.699\ngini = 0.278\nsamples = 12\nvalue = [10, 2]\nclass = Survived 0", fillcolor="#ea9a61"] ;
344 -> 345 ;
346 [label="Parch <= 0.5\ngini = 0.165\nsamples = 11\nvalue = [10, 1]\nclass = Survived 0", fillcolor="#e88e4d"] ;
345 -> 346 ;
347 [label="gini = 0.0\nsamples = 7\nvalue = [7, 0]\nclass = Survived 0", fillcolor="#e58139"] ;
346 -> 347 ;
348 [label="Age <= 22.0\ngini = 0.375\nsamples = 4\nvalue = [3, 1]\nclass = Survived 0", fillcolor="#eeab7b"] ;
346 -> 348 ;
349 [label="gini = 0.0\nsamples = 3\nvalue = [3, 0]\nclass = Survived 0", fillcolor="#e58139"] ;
348 -> 349 ;
350 [label="gini = 0.0\nsamples = 1\nvalue = [0, 1]\nclass = Survived 1", fillcolor="#399de5"] ;
348 -> 350 ;
351 [label="gini = 0.0\nsamples = 1\nvalue = [0, 1]\nclass = Survived 1", fillcolor="#399de5"] ;
345 -> 351 ;
352 [label="Age <= 27.5\ngini = 0.375\nsamples = 12\nvalue = [3, 9]\nclass = Survived 1", fillcolor="#7bbeee"] ;
344 -> 352 ;
353 [label="gini = 0.0\nsamples = 7\nvalue = [0, 7]\nclass = Survived 1", fillcolor="#399de5"] ;
352 -> 353 ;
354 [label="Fare <= 3.711\ngini = 0.48\nsamples = 5\nvalue = [3, 2]\nclass = Survived 0", fillcolor="#f6d5bd"] ;
352 -> 354 ;
355 [label="gini = 0.0\nsamples = 2\nvalue = [0, 2]\nclass = Survived 1", fillcolor="#399de5"] ;
354 -> 355 ;
356 [label="gini = 0.0\nsamples = 3\nvalue = [3, 0]\nclass = Survived 0", fillcolor="#e58139"] ;
354 -> 356 ;
357 [label="Fare <= 3.997\ngini = 0.18\nsamples = 10\nvalue = [9, 1]\nclass = Survived 0", fillcolor="#e88f4f"] ;
343 -> 357 ;
358 [label="gini = 0.0\nsamples = 7\nvalue = [7, 0]\nclass = Survived 0", fillcolor="#e58139"] ;
357 -> 358 ;
359 [label="Fare <= 4.05\ngini = 0.444\nsamples = 3\nvalue = [2, 1]\nclass = Survived 0", fillcolor="#f2c09c"] ;
357 -> 359 ;
360 [label="gini = 0.0\nsamples = 1\nvalue = [0, 1]\nclass = Survived 1", fillcolor="#399de5"] ;
359 -> 360 ;
361 [label="gini = 0.0\nsamples = 2\nvalue = [2, 0]\nclass = Survived 0", fillcolor="#e58139"] ;
359 -> 361 ;
362 [label="Age <= 32.5\ngini = 0.278\nsamples = 6\nvalue = [1, 5]\nclass = Survived 1", fillcolor="#61b1ea"] ;
342 -> 362 ;
363 [label="gini = 0.0\nsamples = 3\nvalue = [0, 3]\nclass = Survived 1", fillcolor="#399de5"] ;
362 -> 363 ;
364 [label="Age <= 33.5\ngini = 0.444\nsamples = 3\nvalue = [1, 2]\nclass = Survived 1", fillcolor="#9ccef2"] ;
362 -> 364 ;
365 [label="gini = 0.0\nsamples = 1\nvalue = [1, 0]\nclass = Survived 0", fillcolor="#e58139"] ;
364 -> 365 ;
366 [label="gini = 0.0\nsamples = 2\nvalue = [0, 2]\nclass = Survived 1", fillcolor="#399de5"] ;
364 -> 366 ;
367 [label="Age <= 75.5\ngini = 0.311\nsamples = 78\nvalue = [63, 15]\nclass = Survived 0", fillcolor="#eb9f68"] ;
341 -> 367 ;
368 [label="Age <= 52.5\ngini = 0.298\nsamples = 77\nvalue = [63, 14]\nclass = Survived 0", fillcolor="#eb9d65"] ;
367 -> 368 ;
369 [label="Age <= 47.5\ngini = 0.36\nsamples = 51\nvalue = [39, 12]\nclass = Survived 0", fillcolor="#eda876"] ;
368 -> 369 ;
370 [label="Fare <= 4.462\ngini = 0.229\nsamples = 38\nvalue = [33, 5]\nclass = Survived 0", fillcolor="#e99457"] ;
369 -> 370 ;
371 [label="Fare <= 3.967\ngini = 0.193\nsamples = 37\nvalue = [33, 4]\nclass = Survived 0", fillcolor="#e89051"] ;
370 -> 371 ;
372 [label="Fare <= 3.957\ngini = 0.252\nsamples = 27\nvalue = [23, 4]\nclass = Survived 0", fillcolor="#ea975b"] ;
371 -> 372 ;
373 [label="Fare <= 3.438\ngini = 0.147\nsamples = 25\nvalue = [23, 2]\nclass = Survived 0", fillcolor="#e78c4a"] ;
372 -> 373 ;
374 [label="Fare <= 3.426\ngini = 0.26\nsamples = 13\nvalue = [11, 2]\nclass = Survived 0", fillcolor="#ea985d"] ;
373 -> 374 ;
375 [label="Fare <= 3.301\ngini = 0.153\nsamples = 12\nvalue = [11, 1]\nclass = Survived 0", fillcolor="#e78c4b"] ;
374 -> 375 ;
376 [label="Age <= 43.5\ngini = 0.375\nsamples = 4\nvalue = [3, 1]\nclass = Survived 0", fillcolor="#eeab7b"] ;
375 -> 376 ;
377 [label="gini = 0.0\nsamples = 2\nvalue = [2, 0]\nclass = Survived 0", fillcolor="#e58139"] ;
376 -> 377 ;
378 [label="gini = 0.5\nsamples = 2\nvalue = [1, 1]\nclass = Survived 0", fillcolor="#ffffff"] ;
376 -> 378 ;
379 [label="gini = 0.0\nsamples = 8\nvalue = [8, 0]\nclass = Survived 0", fillcolor="#e58139"] ;
375 -> 379 ;
380 [label="gini = 0.0\nsamples = 1\nvalue = [0, 1]\nclass = Survived 1", fillcolor="#399de5"] ;
374 -> 380 ;
381 [label="gini = 0.0\nsamples = 12\nvalue = [12, 0]\nclass = Survived 0", fillcolor="#e58139"] ;
373 -> 381 ;
382 [label="gini = 0.0\nsamples = 2\nvalue = [0, 2]\nclass = Survived 1", fillcolor="#399de5"] ;
372 -> 382 ;
383 [label="gini = 0.0\nsamples = 10\nvalue = [10, 0]\nclass = Survived 0", fillcolor="#e58139"] ;
371 -> 383 ;
384 [label="gini = 0.0\nsamples = 1\nvalue = [0, 1]\nclass = Survived 1", fillcolor="#399de5"] ;
370 -> 384 ;
385 [label="Parch <= 0.5\ngini = 0.497\nsamples = 13\nvalue = [6, 7]\nclass = Survived 1", fillcolor="#e3f1fb"] ;
369 -> 385 ;
386 [label="Fare <= 4.579\ngini = 0.42\nsamples = 10\nvalue = [3, 7]\nclass = Survived 1", fillcolor="#8ec7f0"] ;
385 -> 386 ;
387 [label="Fare <= 3.67\ngini = 0.346\nsamples = 9\nvalue = [2, 7]\nclass = Survived 1", fillcolor="#72b9ec"] ;
386 -> 387 ;
388 [label="gini = 0.0\nsamples = 3\nvalue = [0, 3]\nclass = Survived 1", fillcolor="#399de5"] ;
387 -> 388 ;
389 [label="Fare <= 4.033\ngini = 0.444\nsamples = 6\nvalue = [2, 4]\nclass = Survived 1", fillcolor="#9ccef2"] ;
387 -> 389 ;
390 [label="Age <= 49.0\ngini = 0.444\nsamples = 3\nvalue = [2, 1]\nclass = Survived 0", fillcolor="#f2c09c"] ;
389 -> 390 ;
391 [label="Fare <= 3.937\ngini = 0.5\nsamples = 2\nvalue = [1, 1]\nclass = Survived 0", fillcolor="#ffffff"] ;
390 -> 391 ;
392 [label="gini = 0.0\nsamples = 1\nvalue = [1, 0]\nclass = Survived 0", fillcolor="#e58139"] ;
391 -> 392 ;
393 [label="gini = 0.0\nsamples = 1\nvalue = [0, 1]\nclass = Survived 1", fillcolor="#399de5"] ;
391 -> 393 ;
394 [label="gini = 0.0\nsamples = 1\nvalue = [1, 0]\nclass = Survived 0", fillcolor="#e58139"] ;
390 -> 394 ;
395 [label="gini = 0.0\nsamples = 3\nvalue = [0, 3]\nclass = Survived 1", fillcolor="#399de5"] ;
389 -> 395 ;
396 [label="gini = 0.0\nsamples = 1\nvalue = [1, 0]\nclass = Survived 0", fillcolor="#e58139"] ;
386 -> 396 ;
397 [label="gini = 0.0\nsamples = 3\nvalue = [3, 0]\nclass = Survived 0", fillcolor="#e58139"] ;
385 -> 397 ;
398 [label="Fare <= 4.36\ngini = 0.142\nsamples = 26\nvalue = [24, 2]\nclass = Survived 0", fillcolor="#e78c49"] ;
368 -> 398 ;
399 [label="Age <= 57.0\ngini = 0.087\nsamples = 22\nvalue = [21, 1]\nclass = Survived 0", fillcolor="#e68742"] ;
398 -> 399 ;
400 [label="Age <= 55.5\ngini = 0.18\nsamples = 10\nvalue = [9, 1]\nclass = Survived 0", fillcolor="#e88f4f"] ;
399 -> 400 ;
401 [label="gini = 0.0\nsamples = 7\nvalue = [7, 0]\nclass = Survived 0", fillcolor="#e58139"] ;
400 -> 401 ;
402 [label="Fare <= 3.497\ngini = 0.444\nsamples = 3\nvalue = [2, 1]\nclass = Survived 0", fillcolor="#f2c09c"] ;
400 -> 402 ;
403 [label="gini = 0.0\nsamples = 2\nvalue = [2, 0]\nclass = Survived 0", fillcolor="#e58139"] ;
402 -> 403 ;
404 [label="gini = 0.0\nsamples = 1\nvalue = [0, 1]\nclass = Survived 1", fillcolor="#399de5"] ;
402 -> 404 ;
405 [label="gini = 0.0\nsamples = 12\nvalue = [12, 0]\nclass = Survived 0", fillcolor="#e58139"] ;
399 -> 405 ;
406 [label="Fare <= 4.388\ngini = 0.375\nsamples = 4\nvalue = [3, 1]\nclass = Survived 0", fillcolor="#eeab7b"] ;
398 -> 406 ;
407 [label="gini = 0.0\nsamples = 1\nvalue = [0, 1]\nclass = Survived 1", fillcolor="#399de5"] ;
406 -> 407 ;
408 [label="gini = 0.0\nsamples = 3\nvalue = [3, 0]\nclass = Survived 0", fillcolor="#e58139"] ;
406 -> 408 ;
409 [label="gini = 0.0\nsamples = 1\nvalue = [0, 1]\nclass = Survived 1", fillcolor="#399de5"] ;
367 -> 409 ;
410 [label="Age <= 11.0\ngini = 0.095\nsamples = 20\nvalue = [19, 1]\nclass = Survived 0", fillcolor="#e68843"] ;
340 -> 410 ;
411 [label="Fare <= 3.543\ngini = 0.5\nsamples = 2\nvalue = [1, 1]\nclass = Survived 0", fillcolor="#ffffff"] ;
410 -> 411 ;
412 [label="gini = 0.0\nsamples = 1\nvalue = [1, 0]\nclass = Survived 0", fillcolor="#e58139"] ;
411 -> 412 ;
413 [label="gini = 0.0\nsamples = 1\nvalue = [0, 1]\nclass = Survived 1", fillcolor="#399de5"] ;
411 -> 413 ;
414 [label="gini = 0.0\nsamples = 18\nvalue = [18, 0]\nclass = Survived 0", fillcolor="#e58139"] ;
410 -> 414 ;
415 [label="gini = 0.0\nsamples = 21\nvalue = [21, 0]\nclass = Survived 0", fillcolor="#e58139"] ;
339 -> 415 ;
416 [label="gini = 0.0\nsamples = 3\nvalue = [0, 3]\nclass = Survived 1", fillcolor="#399de5"] ;
338 -> 416 ;
417 [label="gini = 0.0\nsamples = 18\nvalue = [18, 0]\nclass = Survived 0", fillcolor="#e58139"] ;
337 -> 417 ;
418 [label="gini = 0.0\nsamples = 2\nvalue = [0, 2]\nclass = Survived 1", fillcolor="#399de5"] ;
336 -> 418 ;
}