digraph Tree {
node [shape=box, style="filled, rounded", color="black", fontname=helvetica] ;
edge [fontname=helvetica] ;
0 [label="Sex_1 <= 0.5\ngini = 0.479\nsamples = 1043\nvalue = [628, 415]\nclass = Survived 0", fillcolor="#f6d4bc"] ;
1 [label="Pclass_3 <= 0.5\ngini = 0.277\nsamples = 386\nvalue = [64, 322]\nclass = Survived 1", fillcolor="#60b0ea"] ;
0 -> 1 [labeldistance=2.5, labelangle=45, headlabel="True"] ;
2 [label="Fare <= 3.362\ngini = 0.074\nsamples = 234\nvalue = [9, 225]\nclass = Survived 1", fillcolor="#41a1e6"] ;
1 -> 2 ;
3 [label="Fare <= 3.34\ngini = 0.137\nsamples = 95\nvalue = [7, 88]\nclass = Survived 1", fillcolor="#49a5e7"] ;
2 -> 3 ;
4 [label="Age <= 23.5\ngini = 0.12\nsamples = 94\nvalue = [6, 88]\nclass = Survived 1", fillcolor="#46a4e7"] ;
3 -> 4 ;
5 [label="gini = 0.0\nsamples = 26\nvalue = [0, 26]\nclass = Survived 1", fillcolor="#399de5"] ;
4 -> 5 ;
6 [label="Age <= 27.5\ngini = 0.161\nsamples = 68\nvalue = [6, 62]\nclass = Survived 1", fillcolor="#4ca6e8"] ;
4 -> 6 ;
7 [label="gini = 0.355\nsamples = 13\nvalue = [3, 10]\nclass = Survived 1", fillcolor="#74baed"] ;
6 -> 7 ;
8 [label="gini = 0.103\nsamples = 55\nvalue = [3, 52]\nclass = Survived 1", fillcolor="#44a3e6"] ;
6 -> 8 ;
9 [label="gini = 0.0\nsamples = 1\nvalue = [1, 0]\nclass = Survived 0", fillcolor="#e58139"] ;
3 -> 9 ;
10 [label="Age <= 2.5\ngini = 0.028\nsamples = 139\nvalue = [2, 137]\nclass = Survived 1", fillcolor="#3c9ee5"] ;
2 -> 10 ;
11 [label="gini = 0.5\nsamples = 2\nvalue = [1, 1]\nclass = Survived 0", fillcolor="#ffffff"] ;
10 -> 11 ;
12 [label="Parch <= 1.5\ngini = 0.014\nsamples = 137\nvalue = [1, 136]\nclass = Survived 1", fillcolor="#3a9ee5"] ;
10 -> 12 ;
13 [label="gini = 0.0\nsamples = 112\nvalue = [0, 112]\nclass = Survived 1", fillcolor="#399de5"] ;
12 -> 13 ;
14 [label="Fare <= 4.904\ngini = 0.077\nsamples = 25\nvalue = [1, 24]\nclass = Survived 1", fillcolor="#41a1e6"] ;
12 -> 14 ;
15 [label="gini = 0.0\nsamples = 16\nvalue = [0, 16]\nclass = Survived 1", fillcolor="#399de5"] ;
14 -> 15 ;
16 [label="gini = 0.198\nsamples = 9\nvalue = [1, 8]\nclass = Survived 1", fillcolor="#52a9e8"] ;
14 -> 16 ;
17 [label="Fare <= 3.036\ngini = 0.462\nsamples = 152\nvalue = [55, 97]\nclass = Survived 1", fillcolor="#a9d5f4"] ;
1 -> 17 ;
18 [label="Fare <= 2.047\ngini = 0.401\nsamples = 126\nvalue = [35, 91]\nclass = Survived 1", fillcolor="#85c3ef"] ;
17 -> 18 ;
19 [label="Fare <= 1.924\ngini = 0.105\nsamples = 18\nvalue = [1, 17]\nclass = Survived 1", fillcolor="#45a3e7"] ;
18 -> 19 ;
20 [label="gini = 0.0\nsamples = 1\nvalue = [1, 0]\nclass = Survived 0", fillcolor="#e58139"] ;
19 -> 20 ;
21 [label="gini = 0.0\nsamples = 17\nvalue = [0, 17]\nclass = Survived 1", fillcolor="#399de5"] ;
19 -> 21 ;
22 [label="Age <= 39.0\ngini = 0.431\nsamples = 108\nvalue = [34, 74]\nclass = Survived 1", fillcolor="#94caf1"] ;
18 -> 22 ;
23 [label="Parch <= 1.5\ngini = 0.409\nsamples = 101\nvalue = [29, 72]\nclass = Survived 1", fillcolor="#89c4ef"] ;
22 -> 23 ;
24 [label="gini = 0.439\nsamples = 89\nvalue = [29, 60]\nclass = Survived 1", fillcolor="#99ccf2"] ;
23 -> 24 ;
25 [label="gini = 0.0\nsamples = 12\nvalue = [0, 12]\nclass = Survived 1", fillcolor="#399de5"] ;
23 -> 25 ;
26 [label="gini = 0.408\nsamples = 7\nvalue = [5, 2]\nclass = Survived 0", fillcolor="#efb388"] ;
22 -> 26 ;
27 [label="Parch <= 0.5\ngini = 0.355\nsamples = 26\nvalue = [20, 6]\nclass = Survived 0", fillcolor="#eda774"] ;
17 -> 27 ;
28 [label="gini = 0.0\nsamples = 1\nvalue = [0, 1]\nclass = Survived 1", fillcolor="#399de5"] ;
27 -> 28 ;
29 [label="Age <= 38.5\ngini = 0.32\nsamples = 25\nvalue = [20, 5]\nclass = Survived 0", fillcolor="#eca06a"] ;
27 -> 29 ;
30 [label="Age <= 34.0\ngini = 0.388\nsamples = 19\nvalue = [14, 5]\nclass = Survived 0", fillcolor="#eeae80"] ;
29 -> 30 ;
31 [label="gini = 0.346\nsamples = 18\nvalue = [14, 4]\nclass = Survived 0", fillcolor="#eca572"] ;
30 -> 31 ;
32 [label="gini = 0.0\nsamples = 1\nvalue = [0, 1]\nclass = Survived 1", fillcolor="#399de5"] ;
30 -> 32 ;
33 [label="gini = 0.0\nsamples = 6\nvalue = [6, 0]\nclass = Survived 0", fillcolor="#e58139"] ;
29 -> 33 ;
34 [label="Age <= 4.5\ngini = 0.243\nsamples = 657\nvalue = [564, 93]\nclass = Survived 0", fillcolor="#e9965a"] ;
0 -> 34 [labeldistance=2.5, labelangle=-45, headlabel="False"] ;
35 [label="SibSp <= 2.5\ngini = 0.494\nsamples = 27\nvalue = [12, 15]\nclass = Survived 1", fillcolor="#d7ebfa"] ;
34 -> 35 ;
36 [label="Fare <= 2.671\ngini = 0.346\nsamples = 18\nvalue = [4, 14]\nclass = Survived 1", fillcolor="#72b9ec"] ;
35 -> 36 ;
37 [label="gini = 0.48\nsamples = 5\nvalue = [3, 2]\nclass = Survived 0", fillcolor="#f6d5bd"] ;
36 -> 37 ;
38 [label="gini = 0.142\nsamples = 13\nvalue = [1, 12]\nclass = Survived 1", fillcolor="#49a5e7"] ;
36 -> 38 ;
39 [label="gini = 0.198\nsamples = 9\nvalue = [8, 1]\nclass = Survived 0", fillcolor="#e89152"] ;
35 -> 39 ;
40 [label="Fare <= 3.268\ngini = 0.217\nsamples = 630\nvalue = [552, 78]\nclass = Survived 0", fillcolor="#e99355"] ;
34 -> 40 ;
41 [label="Age <= 12.5\ngini = 0.149\nsamples = 444\nvalue = [408, 36]\nclass = Survived 0", fillcolor="#e78c4a"] ;
40 -> 41 ;
42 [label="gini = 0.48\nsamples = 10\nvalue = [6, 4]\nclass = Survived 0", fillcolor="#f6d5bd"] ;
41 -> 42 ;
43 [label="Fare <= 2.397\ngini = 0.137\nsamples = 434\nvalue = [402, 32]\nclass = Survived 0", fillcolor="#e78b49"] ;
41 -> 43 ;
44 [label="Fare <= 2.068\ngini = 0.163\nsamples = 291\nvalue = [265, 26]\nclass = Survived 0", fillcolor="#e88d4c"] ;
43 -> 44 ;
45 [label="gini = 0.122\nsamples = 169\nvalue = [158, 11]\nclass = Survived 0", fillcolor="#e78a47"] ;
44 -> 45 ;
46 [label="gini = 0.216\nsamples = 122\nvalue = [107, 15]\nclass = Survived 0", fillcolor="#e99355"] ;
44 -> 46 ;
47 [label="Age <= 42.5\ngini = 0.08\nsamples = 143\nvalue = [137, 6]\nclass = Survived 0", fillcolor="#e68742"] ;
43 -> 47 ;
48 [label="gini = 0.098\nsamples = 116\nvalue = [110, 6]\nclass = Survived 0", fillcolor="#e68844"] ;
47 -> 48 ;
49 [label="gini = 0.0\nsamples = 27\nvalue = [27, 0]\nclass = Survived 0", fillcolor="#e58139"] ;
47 -> 49 ;
50 [label="Fare <= 3.276\ngini = 0.35\nsamples = 186\nvalue = [144, 42]\nclass = Survived 0", fillcolor="#eda673"] ;
40 -> 50 ;
51 [label="gini = 0.0\nsamples = 4\nvalue = [0, 4]\nclass = Survived 1", fillcolor="#399de5"] ;
50 -> 51 ;
52 [label="Fare <= 5.906\ngini = 0.33\nsamples = 182\nvalue = [144, 38]\nclass = Survived 0", fillcolor="#eca26d"] ;
50 -> 52 ;
53 [label="Fare <= 4.898\ngini = 0.32\nsamples = 180\nvalue = [144, 36]\nclass = Survived 0", fillcolor="#eca06a"] ;
52 -> 53 ;
54 [label="gini = 0.346\nsamples = 162\nvalue = [126, 36]\nclass = Survived 0", fillcolor="#eca572"] ;
53 -> 54 ;
55 [label="gini = 0.0\nsamples = 18\nvalue = [18, 0]\nclass = Survived 0", fillcolor="#e58139"] ;
53 -> 55 ;
56 [label="gini = 0.0\nsamples = 2\nvalue = [0, 2]\nclass = Survived 1", fillcolor="#399de5"] ;
52 -> 56 ;
}